digraph Tree {
node [shape=box, style="filled, rounded", color="black", fontname="helvetica"] ;
edge [fontname="helvetica"] ;
0 [label=<ever_hospitalized &le; 0.5<br/>gini = 0.5<br/>samples = 984<br/>value = [492, 492]<br/>class = Not Deceased>, fillcolor="#ffffff"] ;
1 [label=<gini = 0.0<br/>samples = 371<br/>value = [371, 0]<br/>class = Not Deceased>, fillcolor="#e58139"] ;
0 -> 1 [labeldistance=2.5, labelangle=45, headlabel="True"] ;
2 [label=<sex &le; 0.5<br/>gini = 0.317<br/>samples = 613<br/>value = [121, 492]<br/>class = Deceased>, fillcolor="#6ab5eb"] ;
0 -> 2 [labeldistance=2.5, labelangle=-45, headlabel="False"] ;
3 [label=<anemia_confirmed &le; 0.5<br/>gini = 0.233<br/>samples = 542<br/>value = [73, 469]<br/>class = Deceased>, fillcolor="#58ace9"] ;
2 -> 3 ;
4 [label=<age_categories &le; 1.5<br/>gini = 0.211<br/>samples = 533<br/>value = [64, 469]<br/>class = Deceased>, fillcolor="#54aae9"] ;
3 -> 4 ;
5 [label=<bmi_cat &le; 1.5<br/>gini = 0.402<br/>samples = 115<br/>value = [32, 83]<br/>class = Deceased>, fillcolor="#85c3ef"] ;
4 -> 5 ;
6 [label=<bmi_cat &le; 0.5<br/>gini = 0.356<br/>samples = 108<br/>value = [25, 83]<br/>class = Deceased>, fillcolor="#75bbed"] ;
5 -> 6 ;
7 [label=<gini = 0.0<br/>samples = 5<br/>value = [5, 0]<br/>class = Not Deceased>, fillcolor="#e58139"] ;
6 -> 7 ;
8 [label=<gini = 0.313<br/>samples = 103<br/>value = [20, 83]<br/>class = Deceased>, fillcolor="#69b5eb"] ;
6 -> 8 ;
9 [label=<gini = 0.0<br/>samples = 7<br/>value = [7, 0]<br/>class = Not Deceased>, fillcolor="#e58139"] ;
5 -> 9 ;
10 [label=<history_cardiac &le; 0.5<br/>gini = 0.141<br/>samples = 418<br/>value = [32, 386]<br/>class = Deceased>, fillcolor="#49a5e7"] ;
4 -> 10 ;
11 [label=<bmi_cat &le; 1.5<br/>gini = 0.13<br/>samples = 414<br/>value = [29, 385]<br/>class = Deceased>, fillcolor="#48a4e7"] ;
10 -> 11 ;
12 [label=<gini = 0.078<br/>samples = 343<br/>value = [14, 329]<br/>class = Deceased>, fillcolor="#41a1e6"] ;
11 -> 12 ;
13 [label=<gini = 0.333<br/>samples = 71<br/>value = [15, 56]<br/>class = Deceased>, fillcolor="#6eb7ec"] ;
11 -> 13 ;
14 [label=<bmi_cat &le; 1.5<br/>gini = 0.375<br/>samples = 4<br/>value = [3, 1]<br/>class = Not Deceased>, fillcolor="#eeab7b"] ;
10 -> 14 ;
15 [label=<gini = 0.0<br/>samples = 2<br/>value = [2, 0]<br/>class = Not Deceased>, fillcolor="#e58139"] ;
14 -> 15 ;
16 [label=<gini = 0.5<br/>samples = 2<br/>value = [1, 1]<br/>class = Not Deceased>, fillcolor="#ffffff"] ;
14 -> 16 ;
17 [label=<gini = 0.0<br/>samples = 9<br/>value = [9, 0]<br/>class = Not Deceased>, fillcolor="#e58139"] ;
3 -> 17 ;
18 [label=<age_categories &le; 2.5<br/>gini = 0.438<br/>samples = 71<br/>value = [48, 23]<br/>class = Not Deceased>, fillcolor="#f1bd98"] ;
2 -> 18 ;
19 [label=<bmi_cat &le; 2.5<br/>gini = 0.201<br/>samples = 44<br/>value = [39, 5]<br/>class = Not Deceased>, fillcolor="#e89152"] ;
18 -> 19 ;
20 [label=<exposure_risk &le; 0.5<br/>gini = 0.074<br/>samples = 26<br/>value = [25, 1]<br/>class = Not Deceased>, fillcolor="#e68641"] ;
19 -> 20 ;
21 [label=<gini = 0.0<br/>samples = 13<br/>value = [13, 0]<br/>class = Not Deceased>, fillcolor="#e58139"] ;
20 -> 21 ;
22 [label=<history_hypertension &le; 0.5<br/>gini = 0.142<br/>samples = 13<br/>value = [12, 1]<br/>class = Not Deceased>, fillcolor="#e78c49"] ;
20 -> 22 ;
23 [label=<gini = 0.18<br/>samples = 10<br/>value = [9, 1]<br/>class = Not Deceased>, fillcolor="#e88f4f"] ;
22 -> 23 ;
24 [label=<gini = 0.0<br/>samples = 3<br/>value = [3, 0]<br/>class = Not Deceased>, fillcolor="#e58139"] ;
22 -> 24 ;
25 [label=<age_categories &le; 1.5<br/>gini = 0.346<br/>samples = 18<br/>value = [14, 4]<br/>class = Not Deceased>, fillcolor="#eca572"] ;
19 -> 25 ;
26 [label=<gini = 0.0<br/>samples = 4<br/>value = [4, 0]<br/>class = Not Deceased>, fillcolor="#e58139"] ;
25 -> 26 ;
27 [label=<history_cardiac &le; 0.5<br/>gini = 0.408<br/>samples = 14<br/>value = [10, 4]<br/>class = Not Deceased>, fillcolor="#efb388"] ;
25 -> 27 ;
28 [label=<gini = 0.463<br/>samples = 11<br/>value = [7, 4]<br/>class = Not Deceased>, fillcolor="#f4c9aa"] ;
27 -> 28 ;
29 [label=<gini = 0.0<br/>samples = 3<br/>value = [3, 0]<br/>class = Not Deceased>, fillcolor="#e58139"] ;
27 -> 29 ;
30 [label=<exposure_risk &le; 0.5<br/>gini = 0.444<br/>samples = 27<br/>value = [9, 18]<br/>class = Deceased>, fillcolor="#9ccef2"] ;
18 -> 30 ;
31 [label=<history_hypertension &le; 0.5<br/>gini = 0.188<br/>samples = 19<br/>value = [2, 17]<br/>class = Deceased>, fillcolor="#50a9e8"] ;
30 -> 31 ;
32 [label=<gini = 0.0<br/>samples = 12<br/>value = [0, 12]<br/>class = Deceased>, fillcolor="#399de5"] ;
31 -> 32 ;
33 [label=<history_pulmonary &le; 0.5<br/>gini = 0.408<br/>samples = 7<br/>value = [2, 5]<br/>class = Deceased>, fillcolor="#88c4ef"] ;
31 -> 33 ;
34 [label=<gini = 0.278<br/>samples = 6<br/>value = [1, 5]<br/>class = Deceased>, fillcolor="#61b1ea"] ;
33 -> 34 ;
35 [label=<gini = 0.0<br/>samples = 1<br/>value = [1, 0]<br/>class = Not Deceased>, fillcolor="#e58139"] ;
33 -> 35 ;
36 [label=<anemia_confirmed &le; 0.5<br/>gini = 0.219<br/>samples = 8<br/>value = [7, 1]<br/>class = Not Deceased>, fillcolor="#e99355"] ;
30 -> 36 ;
37 [label=<gini = 0.0<br/>samples = 7<br/>value = [7, 0]<br/>class = Not Deceased>, fillcolor="#e58139"] ;
36 -> 37 ;
38 [label=<gini = 0.0<br/>samples = 1<br/>value = [0, 1]<br/>class = Deceased>, fillcolor="#399de5"] ;
36 -> 38 ;
}
