digraph Tree {
node [shape=box, style="filled, rounded", color="black", fontname="helvetica"] ;
edge [fontname="helvetica"] ;
0 [label=<ever_hospitalized &le; 0.5<br/>gini = 0.5<br/>samples = 984<br/>value = [492, 492]<br/>class = Not Deceased>, fillcolor="#ffffff"] ;
1 [label=<gini = 0.0<br/>samples = 371<br/>value = [371, 0]<br/>class = Not Deceased>, fillcolor="#e58139"] ;
0 -> 1 [labeldistance=2.5, labelangle=45, headlabel="True"] ;
2 [label=<sex &le; 0.5<br/>gini = 0.317<br/>samples = 613<br/>value = [121, 492]<br/>class = Deceased>, fillcolor="#6ab5eb"] ;
0 -> 2 [labeldistance=2.5, labelangle=-45, headlabel="False"] ;
3 [label=<anemia_confirmed &le; 0.5<br/>gini = 0.233<br/>samples = 541<br/>value = [73, 468]<br/>class = Deceased>, fillcolor="#58ace9"] ;
2 -> 3 ;
4 [label=<age_categories &le; 1.5<br/>gini = 0.212<br/>samples = 532<br/>value = [64, 468]<br/>class = Deceased>, fillcolor="#54aae9"] ;
3 -> 4 ;
5 [label=<bmi_cat &le; 1.5<br/>gini = 0.391<br/>samples = 120<br/>value = [32, 88]<br/>class = Deceased>, fillcolor="#81c1ee"] ;
4 -> 5 ;
6 [label=<bmi_cat &le; 0.5<br/>gini = 0.345<br/>samples = 113<br/>value = [25, 88]<br/>class = Deceased>, fillcolor="#71b9ec"] ;
5 -> 6 ;
7 [label=<gini = 0.0<br/>samples = 5<br/>value = [5, 0]<br/>class = Not Deceased>, fillcolor="#e58139"] ;
6 -> 7 ;
8 [label=<gini = 0.302<br/>samples = 108<br/>value = [20, 88]<br/>class = Deceased>, fillcolor="#66b3eb"] ;
6 -> 8 ;
9 [label=<gini = 0.0<br/>samples = 7<br/>value = [7, 0]<br/>class = Not Deceased>, fillcolor="#e58139"] ;
5 -> 9 ;
10 [label=<history_cardiac &le; 0.5<br/>gini = 0.143<br/>samples = 412<br/>value = [32, 380]<br/>class = Deceased>, fillcolor="#4aa5e7"] ;
4 -> 10 ;
11 [label=<bmi_cat &le; 1.5<br/>gini = 0.132<br/>samples = 408<br/>value = [29, 379]<br/>class = Deceased>, fillcolor="#48a4e7"] ;
10 -> 11 ;
12 [label=<gini = 0.081<br/>samples = 333<br/>value = [14, 319]<br/>class = Deceased>, fillcolor="#42a1e6"] ;
11 -> 12 ;
13 [label=<gini = 0.32<br/>samples = 75<br/>value = [15, 60]<br/>class = Deceased>, fillcolor="#6ab6ec"] ;
11 -> 13 ;
14 [label=<bmi_cat &le; 1.5<br/>gini = 0.375<br/>samples = 4<br/>value = [3, 1]<br/>class = Not Deceased>, fillcolor="#eeab7b"] ;
10 -> 14 ;
15 [label=<gini = 0.0<br/>samples = 2<br/>value = [2, 0]<br/>class = Not Deceased>, fillcolor="#e58139"] ;
14 -> 15 ;
16 [label=<gini = 0.5<br/>samples = 2<br/>value = [1, 1]<br/>class = Not Deceased>, fillcolor="#ffffff"] ;
14 -> 16 ;
17 [label=<gini = 0.0<br/>samples = 9<br/>value = [9, 0]<br/>class = Not Deceased>, fillcolor="#e58139"] ;
3 -> 17 ;
18 [label=<age_categories &le; 2.5<br/>gini = 0.444<br/>samples = 72<br/>value = [48, 24]<br/>class = Not Deceased>, fillcolor="#f2c09c"] ;
2 -> 18 ;
19 [label=<bmi_cat &le; 2.5<br/>gini = 0.169<br/>samples = 43<br/>value = [39, 4]<br/>class = Not Deceased>, fillcolor="#e88e4d"] ;
18 -> 19 ;
20 [label=<exposure_risk &le; 0.5<br/>gini = 0.074<br/>samples = 26<br/>value = [25, 1]<br/>class = Not Deceased>, fillcolor="#e68641"] ;
19 -> 20 ;
21 [label=<gini = 0.0<br/>samples = 13<br/>value = [13, 0]<br/>class = Not Deceased>, fillcolor="#e58139"] ;
20 -> 21 ;
22 [label=<history_hypertension &le; 0.5<br/>gini = 0.142<br/>samples = 13<br/>value = [12, 1]<br/>class = Not Deceased>, fillcolor="#e78c49"] ;
20 -> 22 ;
23 [label=<gini = 0.18<br/>samples = 10<br/>value = [9, 1]<br/>class = Not Deceased>, fillcolor="#e88f4f"] ;
22 -> 23 ;
24 [label=<gini = 0.0<br/>samples = 3<br/>value = [3, 0]<br/>class = Not Deceased>, fillcolor="#e58139"] ;
22 -> 24 ;
25 [label=<age_categories &le; 1.5<br/>gini = 0.291<br/>samples = 17<br/>value = [14, 3]<br/>class = Not Deceased>, fillcolor="#eb9c63"] ;
19 -> 25 ;
26 [label=<gini = 0.0<br/>samples = 4<br/>value = [4, 0]<br/>class = Not Deceased>, fillcolor="#e58139"] ;
25 -> 26 ;
27 [label=<history_cardiac &le; 0.5<br/>gini = 0.355<br/>samples = 13<br/>value = [10, 3]<br/>class = Not Deceased>, fillcolor="#eda774"] ;
25 -> 27 ;
28 [label=<gini = 0.42<br/>samples = 10<br/>value = [7, 3]<br/>class = Not Deceased>, fillcolor="#f0b78e"] ;
27 -> 28 ;
29 [label=<gini = 0.0<br/>samples = 3<br/>value = [3, 0]<br/>class = Not Deceased>, fillcolor="#e58139"] ;
27 -> 29 ;
30 [label=<exposure_risk &le; 0.5<br/>gini = 0.428<br/>samples = 29<br/>value = [9, 20]<br/>class = Deceased>, fillcolor="#92c9f1"] ;
18 -> 30 ;
31 [label=<history_pulmonary &le; 0.5<br/>gini = 0.172<br/>samples = 21<br/>value = [2, 19]<br/>class = Deceased>, fillcolor="#4ea7e8"] ;
30 -> 31 ;
32 [label=<history_hypertension &le; 0.5<br/>gini = 0.1<br/>samples = 19<br/>value = [1, 18]<br/>class = Deceased>, fillcolor="#44a2e6"] ;
31 -> 32 ;
33 [label=<gini = 0.0<br/>samples = 8<br/>value = [0, 8]<br/>class = Deceased>, fillcolor="#399de5"] ;
32 -> 33 ;
34 [label=<gini = 0.165<br/>samples = 11<br/>value = [1, 10]<br/>class = Deceased>, fillcolor="#4da7e8"] ;
32 -> 34 ;
35 [label=<history_hypertension &le; 0.5<br/>gini = 0.5<br/>samples = 2<br/>value = [1, 1]<br/>class = Not Deceased>, fillcolor="#ffffff"] ;
31 -> 35 ;
36 [label=<gini = 0.0<br/>samples = 1<br/>value = [0, 1]<br/>class = Deceased>, fillcolor="#399de5"] ;
35 -> 36 ;
37 [label=<gini = 0.0<br/>samples = 1<br/>value = [1, 0]<br/>class = Not Deceased>, fillcolor="#e58139"] ;
35 -> 37 ;
38 [label=<anemia_confirmed &le; 0.5<br/>gini = 0.219<br/>samples = 8<br/>value = [7, 1]<br/>class = Not Deceased>, fillcolor="#e99355"] ;
30 -> 38 ;
39 [label=<gini = 0.0<br/>samples = 7<br/>value = [7, 0]<br/>class = Not Deceased>, fillcolor="#e58139"] ;
38 -> 39 ;
40 [label=<gini = 0.0<br/>samples = 1<br/>value = [0, 1]<br/>class = Deceased>, fillcolor="#399de5"] ;
38 -> 40 ;
}
