digraph Tree {
node [shape=box, style="filled, rounded", color="black", fontname="helvetica"] ;
edge [fontname="helvetica"] ;
0 [label=<ever_hospitalized &le; 0.5<br/>gini = 0.5<br/>samples = 984<br/>value = [492, 492]<br/>class = Not Deceased>, fillcolor="#ffffff"] ;
1 [label=<gini = 0.0<br/>samples = 371<br/>value = [371, 0]<br/>class = Not Deceased>, fillcolor="#e58139"] ;
0 -> 1 [labeldistance=2.5, labelangle=45, headlabel="True"] ;
2 [label=<sex &le; 0.5<br/>gini = 0.317<br/>samples = 613<br/>value = [121, 492]<br/>class = Deceased>, fillcolor="#6ab5eb"] ;
0 -> 2 [labeldistance=2.5, labelangle=-45, headlabel="False"] ;
3 [label=<anemia_confirmed &le; 0.5<br/>gini = 0.235<br/>samples = 536<br/>value = [73, 463]<br/>class = Deceased>, fillcolor="#58ace9"] ;
2 -> 3 ;
4 [label=<age_categories &le; 1.5<br/>gini = 0.213<br/>samples = 527<br/>value = [64, 463]<br/>class = Deceased>, fillcolor="#54abe9"] ;
3 -> 4 ;
5 [label=<bmi_cat &le; 1.5<br/>gini = 0.397<br/>samples = 117<br/>value = [32, 85]<br/>class = Deceased>, fillcolor="#84c2ef"] ;
4 -> 5 ;
6 [label=<bmi_cat &le; 0.5<br/>gini = 0.351<br/>samples = 110<br/>value = [25, 85]<br/>class = Deceased>, fillcolor="#73baed"] ;
5 -> 6 ;
7 [label=<gini = 0.0<br/>samples = 5<br/>value = [5, 0]<br/>class = Not Deceased>, fillcolor="#e58139"] ;
6 -> 7 ;
8 [label=<gini = 0.308<br/>samples = 105<br/>value = [20, 85]<br/>class = Deceased>, fillcolor="#68b4eb"] ;
6 -> 8 ;
9 [label=<gini = 0.0<br/>samples = 7<br/>value = [7, 0]<br/>class = Not Deceased>, fillcolor="#e58139"] ;
5 -> 9 ;
10 [label=<history_cardiac &le; 0.5<br/>gini = 0.144<br/>samples = 410<br/>value = [32, 378]<br/>class = Deceased>, fillcolor="#4aa5e7"] ;
4 -> 10 ;
11 [label=<bmi_cat &le; 1.5<br/>gini = 0.133<br/>samples = 406<br/>value = [29, 377]<br/>class = Deceased>, fillcolor="#48a5e7"] ;
10 -> 11 ;
12 [label=<gini = 0.082<br/>samples = 326<br/>value = [14, 312]<br/>class = Deceased>, fillcolor="#42a1e6"] ;
11 -> 12 ;
13 [label=<gini = 0.305<br/>samples = 80<br/>value = [15, 65]<br/>class = Deceased>, fillcolor="#67b4eb"] ;
11 -> 13 ;
14 [label=<age_categories &le; 2.5<br/>gini = 0.375<br/>samples = 4<br/>value = [3, 1]<br/>class = Not Deceased>, fillcolor="#eeab7b"] ;
10 -> 14 ;
15 [label=<gini = 0.5<br/>samples = 2<br/>value = [1, 1]<br/>class = Not Deceased>, fillcolor="#ffffff"] ;
14 -> 15 ;
16 [label=<gini = 0.0<br/>samples = 2<br/>value = [2, 0]<br/>class = Not Deceased>, fillcolor="#e58139"] ;
14 -> 16 ;
17 [label=<gini = 0.0<br/>samples = 9<br/>value = [9, 0]<br/>class = Not Deceased>, fillcolor="#e58139"] ;
3 -> 17 ;
18 [label=<age_categories &le; 2.5<br/>gini = 0.47<br/>samples = 77<br/>value = [48, 29]<br/>class = Not Deceased>, fillcolor="#f5cdb1"] ;
2 -> 18 ;
19 [label=<bmi_cat &le; 2.5<br/>gini = 0.231<br/>samples = 45<br/>value = [39, 6]<br/>class = Not Deceased>, fillcolor="#e99457"] ;
18 -> 19 ;
20 [label=<exposure_risk &le; 0.5<br/>gini = 0.074<br/>samples = 26<br/>value = [25, 1]<br/>class = Not Deceased>, fillcolor="#e68641"] ;
19 -> 20 ;
21 [label=<gini = 0.0<br/>samples = 13<br/>value = [13, 0]<br/>class = Not Deceased>, fillcolor="#e58139"] ;
20 -> 21 ;
22 [label=<history_hypertension &le; 0.5<br/>gini = 0.142<br/>samples = 13<br/>value = [12, 1]<br/>class = Not Deceased>, fillcolor="#e78c49"] ;
20 -> 22 ;
23 [label=<gini = 0.18<br/>samples = 10<br/>value = [9, 1]<br/>class = Not Deceased>, fillcolor="#e88f4f"] ;
22 -> 23 ;
24 [label=<gini = 0.0<br/>samples = 3<br/>value = [3, 0]<br/>class = Not Deceased>, fillcolor="#e58139"] ;
22 -> 24 ;
25 [label=<exposure_risk &le; 0.5<br/>gini = 0.388<br/>samples = 19<br/>value = [14, 5]<br/>class = Not Deceased>, fillcolor="#eeae80"] ;
19 -> 25 ;
26 [label=<history_cardiac &le; 0.5<br/>gini = 0.48<br/>samples = 10<br/>value = [6, 4]<br/>class = Not Deceased>, fillcolor="#f6d5bd"] ;
25 -> 26 ;
27 [label=<gini = 0.49<br/>samples = 7<br/>value = [3, 4]<br/>class = Deceased>, fillcolor="#cee6f8"] ;
26 -> 27 ;
28 [label=<gini = 0.0<br/>samples = 3<br/>value = [3, 0]<br/>class = Not Deceased>, fillcolor="#e58139"] ;
26 -> 28 ;
29 [label=<history_diabetes &le; 0.5<br/>gini = 0.198<br/>samples = 9<br/>value = [8, 1]<br/>class = Not Deceased>, fillcolor="#e89152"] ;
25 -> 29 ;
30 [label=<gini = 0.0<br/>samples = 6<br/>value = [6, 0]<br/>class = Not Deceased>, fillcolor="#e58139"] ;
29 -> 30 ;
31 [label=<gini = 0.444<br/>samples = 3<br/>value = [2, 1]<br/>class = Not Deceased>, fillcolor="#f2c09c"] ;
29 -> 31 ;
32 [label=<exposure_risk &le; 0.5<br/>gini = 0.404<br/>samples = 32<br/>value = [9, 23]<br/>class = Deceased>, fillcolor="#86c3ef"] ;
18 -> 32 ;
33 [label=<history_pulmonary &le; 0.5<br/>gini = 0.153<br/>samples = 24<br/>value = [2, 22]<br/>class = Deceased>, fillcolor="#4ba6e7"] ;
32 -> 33 ;
34 [label=<history_hypertension &le; 0.5<br/>gini = 0.087<br/>samples = 22<br/>value = [1, 21]<br/>class = Deceased>, fillcolor="#42a2e6"] ;
33 -> 34 ;
35 [label=<gini = 0.0<br/>samples = 7<br/>value = [0, 7]<br/>class = Deceased>, fillcolor="#399de5"] ;
34 -> 35 ;
36 [label=<gini = 0.124<br/>samples = 15<br/>value = [1, 14]<br/>class = Deceased>, fillcolor="#47a4e7"] ;
34 -> 36 ;
37 [label=<bmi_cat &le; 2.0<br/>gini = 0.5<br/>samples = 2<br/>value = [1, 1]<br/>class = Not Deceased>, fillcolor="#ffffff"] ;
33 -> 37 ;
38 [label=<gini = 0.0<br/>samples = 1<br/>value = [1, 0]<br/>class = Not Deceased>, fillcolor="#e58139"] ;
37 -> 38 ;
39 [label=<gini = 0.0<br/>samples = 1<br/>value = [0, 1]<br/>class = Deceased>, fillcolor="#399de5"] ;
37 -> 39 ;
40 [label=<anemia_confirmed &le; 0.5<br/>gini = 0.219<br/>samples = 8<br/>value = [7, 1]<br/>class = Not Deceased>, fillcolor="#e99355"] ;
32 -> 40 ;
41 [label=<gini = 0.0<br/>samples = 7<br/>value = [7, 0]<br/>class = Not Deceased>, fillcolor="#e58139"] ;
40 -> 41 ;
42 [label=<gini = 0.0<br/>samples = 1<br/>value = [0, 1]<br/>class = Deceased>, fillcolor="#399de5"] ;
40 -> 42 ;
}
