digraph Tree {
node [shape=box, style="filled, rounded", color="black", fontname=helvetica] ;
edge [fontname=helvetica] ;
0 [label=<ever_hospitalized &le; 0.5<br/>gini = 0.105<br/>samples = 413<br/>value = [390, 23]<br/>class = Not Deceased>, fillcolor="#e78845"] ;
1 [label=<gini = 0.0<br/>samples = 292<br/>value = [292, 0]<br/>class = Not Deceased>, fillcolor="#e58139"] ;
0 -> 1 [labeldistance=2.5, labelangle=45, headlabel="True"] ;
2 [label=<age_categories &le; 2.5<br/>gini = 0.308<br/>samples = 121<br/>value = [98, 23]<br/>class = Not Deceased>, fillcolor="#eb9f67"] ;
0 -> 2 [labeldistance=2.5, labelangle=-45, headlabel="False"] ;
3 [label=<uncontrolled_diabetes &le; 0.5<br/>gini = 0.229<br/>samples = 91<br/>value = [79, 12]<br/>class = Not Deceased>, fillcolor="#e99457"] ;
2 -> 3 ;
4 [label=<history_hiv &le; 0.5<br/>gini = 0.203<br/>samples = 87<br/>value = [77, 10]<br/>class = Not Deceased>, fillcolor="#e89153"] ;
3 -> 4 ;
5 [label=<history_diabetes &le; 0.5<br/>gini = 0.189<br/>samples = 85<br/>value = [76, 9]<br/>class = Not Deceased>, fillcolor="#e89050"] ;
4 -> 5 ;
6 [label=<sex &le; 0.5<br/>gini = 0.165<br/>samples = 77<br/>value = [70, 7]<br/>class = Not Deceased>, fillcolor="#e88e4d"] ;
5 -> 6 ;
7 [label=<gini = 0.223<br/>samples = 47<br/>value = [41, 6]<br/>class = Not Deceased>, fillcolor="#e99356"] ;
6 -> 7 ;
8 [label=<gini = 0.064<br/>samples = 30<br/>value = [29, 1]<br/>class = Not Deceased>, fillcolor="#e68540"] ;
6 -> 8 ;
9 [label=<exposure_risk &le; 0.5<br/>gini = 0.375<br/>samples = 8<br/>value = [6, 2]<br/>class = Not Deceased>, fillcolor="#eeab7b"] ;
5 -> 9 ;
10 [label=<gini = 0.0<br/>samples = 3<br/>value = [3, 0]<br/>class = Not Deceased>, fillcolor="#e58139"] ;
9 -> 10 ;
11 [label=<gini = 0.48<br/>samples = 5<br/>value = [3, 2]<br/>class = Not Deceased>, fillcolor="#f6d5bd"] ;
9 -> 11 ;
12 [label=<sex &le; 0.5<br/>gini = 0.5<br/>samples = 2<br/>value = [1, 1]<br/>class = Not Deceased>, fillcolor="#ffffff"] ;
4 -> 12 ;
13 [label=<gini = 0.0<br/>samples = 1<br/>value = [0, 1]<br/>class = Deceased>, fillcolor="#399de5"] ;
12 -> 13 ;
14 [label=<gini = 0.0<br/>samples = 1<br/>value = [1, 0]<br/>class = Not Deceased>, fillcolor="#e58139"] ;
12 -> 14 ;
15 [label=<exposure_risk &le; 0.5<br/>gini = 0.5<br/>samples = 4<br/>value = [2, 2]<br/>class = Not Deceased>, fillcolor="#ffffff"] ;
3 -> 15 ;
16 [label=<gini = 0.0<br/>samples = 1<br/>value = [1, 0]<br/>class = Not Deceased>, fillcolor="#e58139"] ;
15 -> 16 ;
17 [label=<age_categories &le; 1.5<br/>gini = 0.444<br/>samples = 3<br/>value = [1, 2]<br/>class = Deceased>, fillcolor="#9ccef2"] ;
15 -> 17 ;
18 [label=<gini = 0.0<br/>samples = 1<br/>value = [1, 0]<br/>class = Not Deceased>, fillcolor="#e58139"] ;
17 -> 18 ;
19 [label=<gini = 0.0<br/>samples = 2<br/>value = [0, 2]<br/>class = Deceased>, fillcolor="#399de5"] ;
17 -> 19 ;
20 [label=<history_cardiac &le; 0.5<br/>gini = 0.464<br/>samples = 30<br/>value = [19, 11]<br/>class = Not Deceased>, fillcolor="#f4caac"] ;
2 -> 20 ;
21 [label=<bmi_cat &le; 1.5<br/>gini = 0.483<br/>samples = 27<br/>value = [16, 11]<br/>class = Not Deceased>, fillcolor="#f7d8c1"] ;
20 -> 21 ;
22 [label=<anemia_confirmed &le; 0.5<br/>gini = 0.498<br/>samples = 15<br/>value = [7, 8]<br/>class = Deceased>, fillcolor="#e6f3fc"] ;
21 -> 22 ;
23 [label=<sex &le; 0.5<br/>gini = 0.497<br/>samples = 13<br/>value = [7, 6]<br/>class = Not Deceased>, fillcolor="#fbede3"] ;
22 -> 23 ;
24 [label=<gini = 0.408<br/>samples = 7<br/>value = [2, 5]<br/>class = Deceased>, fillcolor="#88c4ef"] ;
23 -> 24 ;
25 [label=<gini = 0.278<br/>samples = 6<br/>value = [5, 1]<br/>class = Not Deceased>, fillcolor="#ea9a61"] ;
23 -> 25 ;
26 [label=<gini = 0.0<br/>samples = 2<br/>value = [0, 2]<br/>class = Deceased>, fillcolor="#399de5"] ;
22 -> 26 ;
27 [label=<history_pulmonary &le; 0.5<br/>gini = 0.375<br/>samples = 12<br/>value = [9, 3]<br/>class = Not Deceased>, fillcolor="#eeab7b"] ;
21 -> 27 ;
28 [label=<history_diabetes &le; 0.5<br/>gini = 0.298<br/>samples = 11<br/>value = [9, 2]<br/>class = Not Deceased>, fillcolor="#eb9d65"] ;
27 -> 28 ;
29 [label=<gini = 0.0<br/>samples = 7<br/>value = [7, 0]<br/>class = Not Deceased>, fillcolor="#e58139"] ;
28 -> 29 ;
30 [label=<gini = 0.5<br/>samples = 4<br/>value = [2, 2]<br/>class = Not Deceased>, fillcolor="#ffffff"] ;
28 -> 30 ;
31 [label=<gini = 0.0<br/>samples = 1<br/>value = [0, 1]<br/>class = Deceased>, fillcolor="#399de5"] ;
27 -> 31 ;
32 [label=<gini = 0.0<br/>samples = 3<br/>value = [3, 0]<br/>class = Not Deceased>, fillcolor="#e58139"] ;
20 -> 32 ;
}
