digraph Tree {
node [shape=box, style="filled, rounded", color="black", fontname="helvetica"] ;
edge [fontname="helvetica"] ;
0 [label=<ever_hospitalized &le; 0.5<br/>gini = 0.5<br/>samples = 984<br/>value = [492, 492]<br/>class = Not Deceased>, fillcolor="#ffffff"] ;
1 [label=<gini = 0.0<br/>samples = 371<br/>value = [371, 0]<br/>class = Not Deceased>, fillcolor="#e58139"] ;
0 -> 1 [labeldistance=2.5, labelangle=45, headlabel="True"] ;
2 [label=<sex &le; 0.5<br/>gini = 0.317<br/>samples = 613<br/>value = [121, 492]<br/>class = Deceased>, fillcolor="#6ab5eb"] ;
0 -> 2 [labeldistance=2.5, labelangle=-45, headlabel="False"] ;
3 [label=<anemia_confirmed &le; 0.5<br/>gini = 0.238<br/>samples = 530<br/>value = [73, 457]<br/>class = Deceased>, fillcolor="#59ade9"] ;
2 -> 3 ;
4 [label=<age_categories &le; 1.5<br/>gini = 0.216<br/>samples = 521<br/>value = [64, 457]<br/>class = Deceased>, fillcolor="#55abe9"] ;
3 -> 4 ;
5 [label=<bmi_cat &le; 1.5<br/>gini = 0.413<br/>samples = 110<br/>value = [32, 78]<br/>class = Deceased>, fillcolor="#8ac5f0"] ;
4 -> 5 ;
6 [label=<bmi_cat &le; 0.5<br/>gini = 0.368<br/>samples = 103<br/>value = [25, 78]<br/>class = Deceased>, fillcolor="#78bced"] ;
5 -> 6 ;
7 [label=<gini = 0.0<br/>samples = 5<br/>value = [5, 0]<br/>class = Not Deceased>, fillcolor="#e58139"] ;
6 -> 7 ;
8 [label=<gini = 0.325<br/>samples = 98<br/>value = [20, 78]<br/>class = Deceased>, fillcolor="#6cb6ec"] ;
6 -> 8 ;
9 [label=<gini = 0.0<br/>samples = 7<br/>value = [7, 0]<br/>class = Not Deceased>, fillcolor="#e58139"] ;
5 -> 9 ;
10 [label=<history_cardiac &le; 0.5<br/>gini = 0.144<br/>samples = 411<br/>value = [32, 379]<br/>class = Deceased>, fillcolor="#4aa5e7"] ;
4 -> 10 ;
11 [label=<bmi_cat &le; 1.5<br/>gini = 0.132<br/>samples = 407<br/>value = [29, 378]<br/>class = Deceased>, fillcolor="#48a5e7"] ;
10 -> 11 ;
12 [label=<gini = 0.084<br/>samples = 318<br/>value = [14, 304]<br/>class = Deceased>, fillcolor="#42a2e6"] ;
11 -> 12 ;
13 [label=<gini = 0.28<br/>samples = 89<br/>value = [15, 74]<br/>class = Deceased>, fillcolor="#61b1ea"] ;
11 -> 13 ;
14 [label=<bmi_cat &le; 1.5<br/>gini = 0.375<br/>samples = 4<br/>value = [3, 1]<br/>class = Not Deceased>, fillcolor="#eeab7b"] ;
10 -> 14 ;
15 [label=<gini = 0.0<br/>samples = 2<br/>value = [2, 0]<br/>class = Not Deceased>, fillcolor="#e58139"] ;
14 -> 15 ;
16 [label=<gini = 0.5<br/>samples = 2<br/>value = [1, 1]<br/>class = Not Deceased>, fillcolor="#ffffff"] ;
14 -> 16 ;
17 [label=<gini = 0.0<br/>samples = 9<br/>value = [9, 0]<br/>class = Not Deceased>, fillcolor="#e58139"] ;
3 -> 17 ;
18 [label=<age_categories &le; 2.5<br/>gini = 0.488<br/>samples = 83<br/>value = [48, 35]<br/>class = Not Deceased>, fillcolor="#f8ddc9"] ;
2 -> 18 ;
19 [label=<bmi_cat &le; 2.5<br/>gini = 0.282<br/>samples = 47<br/>value = [39, 8]<br/>class = Not Deceased>, fillcolor="#ea9b62"] ;
18 -> 19 ;
20 [label=<exposure_risk &le; 0.5<br/>gini = 0.074<br/>samples = 26<br/>value = [25, 1]<br/>class = Not Deceased>, fillcolor="#e68641"] ;
19 -> 20 ;
21 [label=<gini = 0.0<br/>samples = 13<br/>value = [13, 0]<br/>class = Not Deceased>, fillcolor="#e58139"] ;
20 -> 21 ;
22 [label=<history_hypertension &le; 0.5<br/>gini = 0.142<br/>samples = 13<br/>value = [12, 1]<br/>class = Not Deceased>, fillcolor="#e78c49"] ;
20 -> 22 ;
23 [label=<gini = 0.18<br/>samples = 10<br/>value = [9, 1]<br/>class = Not Deceased>, fillcolor="#e88f4f"] ;
22 -> 23 ;
24 [label=<gini = 0.0<br/>samples = 3<br/>value = [3, 0]<br/>class = Not Deceased>, fillcolor="#e58139"] ;
22 -> 24 ;
25 [label=<exposure_risk &le; 0.5<br/>gini = 0.444<br/>samples = 21<br/>value = [14, 7]<br/>class = Not Deceased>, fillcolor="#f2c09c"] ;
19 -> 25 ;
26 [label=<history_hypertension &le; 0.5<br/>gini = 0.5<br/>samples = 12<br/>value = [6, 6]<br/>class = Not Deceased>, fillcolor="#ffffff"] ;
25 -> 26 ;
27 [label=<gini = 0.444<br/>samples = 9<br/>value = [3, 6]<br/>class = Deceased>, fillcolor="#9ccef2"] ;
26 -> 27 ;
28 [label=<gini = 0.0<br/>samples = 3<br/>value = [3, 0]<br/>class = Not Deceased>, fillcolor="#e58139"] ;
26 -> 28 ;
29 [label=<history_hypertension &le; 0.5<br/>gini = 0.198<br/>samples = 9<br/>value = [8, 1]<br/>class = Not Deceased>, fillcolor="#e89152"] ;
25 -> 29 ;
30 [label=<gini = 0.0<br/>samples = 6<br/>value = [6, 0]<br/>class = Not Deceased>, fillcolor="#e58139"] ;
29 -> 30 ;
31 [label=<gini = 0.444<br/>samples = 3<br/>value = [2, 1]<br/>class = Not Deceased>, fillcolor="#f2c09c"] ;
29 -> 31 ;
32 [label=<exposure_risk &le; 0.5<br/>gini = 0.375<br/>samples = 36<br/>value = [9, 27]<br/>class = Deceased>, fillcolor="#7bbeee"] ;
18 -> 32 ;
33 [label=<history_pulmonary &le; 0.5<br/>gini = 0.133<br/>samples = 28<br/>value = [2, 26]<br/>class = Deceased>, fillcolor="#48a5e7"] ;
32 -> 33 ;
34 [label=<history_hypertension &le; 0.5<br/>gini = 0.074<br/>samples = 26<br/>value = [1, 25]<br/>class = Deceased>, fillcolor="#41a1e6"] ;
33 -> 34 ;
35 [label=<gini = 0.0<br/>samples = 11<br/>value = [0, 11]<br/>class = Deceased>, fillcolor="#399de5"] ;
34 -> 35 ;
36 [label=<gini = 0.124<br/>samples = 15<br/>value = [1, 14]<br/>class = Deceased>, fillcolor="#47a4e7"] ;
34 -> 36 ;
37 [label=<history_hypertension &le; 0.5<br/>gini = 0.5<br/>samples = 2<br/>value = [1, 1]<br/>class = Not Deceased>, fillcolor="#ffffff"] ;
33 -> 37 ;
38 [label=<gini = 0.0<br/>samples = 1<br/>value = [0, 1]<br/>class = Deceased>, fillcolor="#399de5"] ;
37 -> 38 ;
39 [label=<gini = 0.0<br/>samples = 1<br/>value = [1, 0]<br/>class = Not Deceased>, fillcolor="#e58139"] ;
37 -> 39 ;
40 [label=<anemia_confirmed &le; 0.5<br/>gini = 0.219<br/>samples = 8<br/>value = [7, 1]<br/>class = Not Deceased>, fillcolor="#e99355"] ;
32 -> 40 ;
41 [label=<gini = 0.0<br/>samples = 7<br/>value = [7, 0]<br/>class = Not Deceased>, fillcolor="#e58139"] ;
40 -> 41 ;
42 [label=<gini = 0.0<br/>samples = 1<br/>value = [0, 1]<br/>class = Deceased>, fillcolor="#399de5"] ;
40 -> 42 ;
}
